<?xml version="1.0"?>
<opencv_storage>
<opencv_ml_boost>
  <format>3</format>
  <is_classifier>1</is_classifier>
  <var_all>3</var_all>
  <var_count>2</var_count>
  <ord_var_count>2</ord_var_count>
  <cat_var_count>1</cat_var_count>
  <training_params>
    <boosting_type>RealAdaboost</boosting_type>
    <use_surrogates>0</use_surrogates>
    <max_categories>10</max_categories>
    <regression_accuracy>9.9999997764825821e-03</regression_accuracy>
    <max_depth>1</max_depth>
    <min_sample_count>10</min_sample_count>
    <cross_validation_folds>0</cross_validation_folds>
    <weight_trimming_rate>9.4999999999999996e-01</weight_trimming_rate></training_params>
  <global_var_idx>1</global_var_idx>
  <var_idx>
    0 1</var_idx>
  <var_type>
    0 0 1</var_type>
  <cat_ofs>
    0 0 0 0</cat_ofs>
  <class_labels>
    0 1 2</class_labels>
  <missing_subst>
    0. 0. 0.</missing_subst>
  <ntrees>100</ntrees>
  <trees>
    <_>
      <nodes>
        <_>
          <depth>0</depth>
          <value>1.7903143460678969e-01</value>
          <splits>
            <_><var>0</var>
              <quality>7.7334475517272949e-01</quality>
              <le>1646.</le></_></splits></_>
        <_>
          <depth>1</depth>
          <value>-9.1715954182342807e-01</value></_>
        <_>
          <depth>1</depth>
          <value>5.7564577324623896e+00</value></_></nodes></_>
    <_>
      <nodes>
        <_>
          <depth>0</depth>
          <value>1.5519102206727286e-08</value>
          <splits>
            <_><var>0</var>
              <quality>1.3573917746543884e-01</quality>
              <le>1.4755000000000000e+03</le></_></splits></_>
        <_>
          <depth>1</depth>
          <value>3.7838011760739082e-01</value></_>
        <_>
          <depth>1</depth>
          <value>-3.9724085738150600e-01</value></_></nodes></_>
    <_>
      <nodes>
        <_>
          <depth>0</depth>
          <value>-6.0127183593866944e-09</value>
          <splits>
            <_><var>1</var>
              <quality>1.6926673054695129e-01</quality>
              <le>1.9505951404571533e+00</le></_></splits></_>
        <_>
          <depth>1</depth>
          <value>2.0687620518396568e-01</value></_>
        <_>
          <depth>1</depth>
          <value>-1.2094743431912784e+00</value></_></nodes></_>
    <_>
      <nodes>
        <_>
          <depth>0</depth>
          <value>-6.0881605349767176e-10</value>
          <splits>
            <_><var>1</var>
              <quality>2.0712688565254211e-01</quality>
              <le>1.1028382778167725e+00</le></_></splits></_>
        <_>
          <depth>1</depth>
          <value>-8.7642654085021654e-01</value></_>
        <_>
          <depth>1</depth>
          <value>3.0524418717276630e-01</value></_></nodes></_>
    <_>
      <nodes>
        <_>
          <depth>0</depth>
          <value>1.8655330578823985e-09</value>
          <splits>
            <_><var>0</var>
              <quality>6.7754179239273071e-02</quality>
              <le>1.4715000000000000e+03</le></_></splits></_>
        <_>
          <depth>1</depth>
          <value>2.8256990738649151e-01</value></_>
        <_>
          <depth>1</depth>
          <value>-2.5445040396439872e-01</value></_></nodes></_>
    <_>
      <nodes>
        <_>
          <depth>0</depth>
          <value>-1.3124767940854794e-10</value>
          <splits>
            <_><var>0</var>
              <quality>7.2390496730804443e-02</quality>
              <le>1454.</le></_></splits></_>
        <_>
          <depth>1</depth>
          <value>-5.9071228091999561e-01</value></_>
        <_>
          <depth>1</depth>
          <value>1.3958201820997493e-01</value></_></nodes></_>
    <_>
      <nodes>
        <_>
          <depth>0</depth>
          <value>1.1800458374297442e-09</value>
          <splits>
            <_><var>0</var>
              <quality>7.8291840851306915e-02</quality>
              <le>7.9350000000000000e+02</le></_></splits></_>
        <_>
          <depth>1</depth>
          <value>5.7564577324623896e+00</value></_>
        <_>
          <depth>1</depth>
          <value>-7.9602831153685341e-02</value></_></nodes></_>
    <_>
      <nodes>
        <_>
          <depth>0</depth>
          <value>-1.0417048901005981e-09</value>
          <splits>
            <_><var>1</var>
              <quality>7.7591620385646820e-02</quality>
              <le>1.9505951404571533e+00</le></_></splits></_>
        <_>
          <depth>1</depth>
          <value>7.9104358457454532e-02</value></_>
        <_>
          <depth>1</depth>
          <value>-5.7564577324601141e+00</value></_></nodes></_>
    <_>
      <nodes>
        <_>
          <depth>0</depth>
          <value>7.9566159679806042e-02</value>
          <splits>
            <_><var>1</var>
              <quality>1.2719996273517609e-01</quality>
              <le>1.1302263736724854e+00</le></_></splits></_>
        <_>
          <depth>1</depth>
          <value>-7.4667400806895101e-02</value></_>
        <_>
          <depth>1</depth>
          <value>1.3670680904640931e+00</value></_></nodes></_>
    <_>
      <nodes>
        <_>
          <depth>0</depth>
          <value>3.9689527062806513e-09</value>
          <splits>
            <_><var>1</var>
              <quality>6.1335213482379913e-02</quality>
              <le>1.0974531173706055e+00</le></_></splits></_>
        <_>
          <depth>1</depth>
          <value>-5.7564577324601141e+00</value></_>
        <_>
          <depth>1</depth>
          <value>6.2366753746733533e-02</value></_></nodes></_>
    <_>
      <nodes>
        <_>
          <depth>0</depth>
          <value>1.2132328372551311e+00</value>
          <splits>
            <_><var>1</var>
              <quality>8.2848924398422241e-01</quality>
              <le>1.1004636287689209e+00</le></_></splits></_>
        <_>
          <depth>1</depth>
          <value>2.8779217078796098e+00</value></_>
        <_>
          <depth>1</depth>
          <value>-5.0166589478116252e-02</value></_></nodes></_>
    <_>
      <nodes>
        <_>
          <depth>0</depth>
          <value>-3.6334363414764825e-01</value>
          <splits>
            <_><var>0</var>
              <quality>3.8083919882774353e-01</quality>
              <le>1.5115000000000000e+03</le></_></splits></_>
        <_>
          <depth>1</depth>
          <value>-6.4959335410522734e-01</value></_>
        <_>
          <depth>1</depth>
          <value>1.2498581334760070e+00</value></_></nodes></_>
    <_>
      <nodes>
        <_>
          <depth>0</depth>
          <value>-4.3720911305322872e-02</value>
          <splits>
            <_><var>1</var>
              <quality>4.2583113908767700e-01</quality>
              <le>1.1028382778167725e+00</le></_></splits></_>
        <_>
          <depth>1</depth>
          <value>-1.9060021457907830e+00</value></_>
        <_>
          <depth>1</depth>
          <value>4.7691591258625987e-01</value></_></nodes></_>
    <_>
      <nodes>
        <_>
          <depth>0</depth>
          <value>3.6879739577784543e-01</value>
          <splits>
            <_><var>1</var>
              <quality>3.1707349419593811e-01</quality>
              <le>1.1030316352844238e+00</le></_></splits></_>
        <_>
          <depth>1</depth>
          <value>1.4503632121358538e+00</value></_>
        <_>
          <depth>1</depth>
          <value>-2.3037605486013277e-02</value></_></nodes></_>
    <_>
      <nodes>
        <_>
          <depth>0</depth>
          <value>-1.3722622492189446e-01</value>
          <splits>
            <_><var>0</var>
              <quality>1.3683603703975677e-01</quality>
              <le>1645.</le></_></splits></_>
        <_>
          <depth>1</depth>
          <value>-2.4617242213171814e-01</value></_>
        <_>
          <depth>1</depth>
          <value>5.7564577324623896e+00</value></_></nodes></_>
    <_>
      <nodes>
        <_>
          <depth>0</depth>
          <value>4.1959129299406882e-03</value>
          <splits>
            <_><var>1</var>
              <quality>2.1615017950534821e-01</quality>
              <le>1.1035258769989014e+00</le></_></splits></_>
        <_>
          <depth>1</depth>
          <value>-9.3609572902201799e-01</value></_>
        <_>
          <depth>1</depth>
          <value>3.0996922020460149e-01</value></_></nodes></_>
    <_>
      <nodes>
        <_>
          <depth>0</depth>
          <value>6.0805626440530525e-03</value>
          <splits>
            <_><var>0</var>
              <quality>2.0662258565425873e-01</quality>
              <le>1.4995000000000000e+03</le></_></splits></_>
        <_>
          <depth>1</depth>
          <value>2.3736774955441267e-01</value></_>
        <_>
          <depth>1</depth>
          <value>-1.6347817489980130e+00</value></_></nodes></_>
    <_>
      <nodes>
        <_>
          <depth>0</depth>
          <value>1.1532344844221361e-02</value>
          <splits>
            <_><var>1</var>
              <quality>5.0842348486185074e-02</quality>
              <le>1.0982677936553955e+00</le></_></splits></_>
        <_>
          <depth>1</depth>
          <value>-5.8876788971934890e-01</value></_>
        <_>
          <depth>1</depth>
          <value>1.1010463666352922e-01</value></_></nodes></_>
    <_>
      <nodes>
        <_>
          <depth>0</depth>
          <value>-5.5427096915875518e-03</value>
          <splits>
            <_><var>1</var>
              <quality>4.6017277985811234e-02</quality>
              <le>1.1213204860687256e+00</le></_></splits></_>
        <_>
          <depth>1</depth>
          <value>1.2213046484380148e-01</value></_>
        <_>
          <depth>1</depth>
          <value>-4.0563284470594169e-01</value></_></nodes></_>
    <_>
      <nodes>
        <_>
          <depth>0</depth>
          <value>7.9539098676644996e-03</value>
          <splits>
            <_><var>0</var>
              <quality>4.1668236255645752e-02</quality>
              <le>1047.</le></_></splits></_>
        <_>
          <depth>1</depth>
          <value>5.7564577324623896e+00</value></_>
        <_>
          <depth>1</depth>
          <value>-3.5840025129007219e-02</value></_></nodes></_>
    <_>
      <nodes>
        <_>
          <depth>0</depth>
          <value>-2.6015259559691800e-01</value>
          <splits>
            <_><var>0</var>
              <quality>2.8981170058250427e-01</quality>
              <le>1454.</le></_></splits></_>
        <_>
          <depth>1</depth>
          <value>-5.7564577324601141e+00</value></_>
        <_>
          <depth>1</depth>
          <value>6.0249707761050098e-02</value></_></nodes></_>
    <_>
      <nodes>
        <_>
          <depth>0</depth>
          <value>4.4828974291871077e-02</value>
          <splits>
            <_><var>1</var>
              <quality>1.1433119326829910e-01</quality>
              <le>1.1231319904327393e+00</le></_></splits></_>
        <_>
          <depth>1</depth>
          <value>-9.2702911081982767e-02</value></_>
        <_>
          <depth>1</depth>
          <value>1.4861560505845510e+00</value></_></nodes></_>
    <_>
      <nodes>
        <_>
          <depth>0</depth>
          <value>-2.7478993710997688e-02</value>
          <splits>
            <_><var>0</var>
              <quality>9.7684510052204132e-02</quality>
              <le>1458.</le></_></splits></_>
        <_>
          <depth>1</depth>
          <value>5.7564577324623896e+00</value></_>
        <_>
          <depth>1</depth>
          <value>-1.2600443857319324e-01</value></_></nodes></_>
    <_>
      <nodes>
        <_>
          <depth>0</depth>
          <value>-8.0690104732988444e-01</value>
          <splits>
            <_><var>1</var>
              <quality>6.8869018554687500e-01</quality>
              <le>1.1242284774780273e+00</le></_></splits></_>
        <_>
          <depth>1</depth>
          <value>1.7201600940256440e-01</value></_>
        <_>
          <depth>1</depth>
          <value>-5.7564577324601141e+00</value></_></nodes></_>
    <_>
      <nodes>
        <_>
          <depth>0</depth>
          <value>9.1989656368451234e-01</value>
          <splits>
            <_><var>1</var>
              <quality>6.9659900665283203e-01</quality>
              <le>1.1231319904327393e+00</le></_></splits></_>
        <_>
          <depth>1</depth>
          <value>-2.9430025296071301e-02</value></_>
        <_>
          <depth>1</depth>
          <value>5.7564577324623896e+00</value></_></nodes></_>
    <_>
      <nodes>
        <_>
          <depth>0</depth>
          <value>-9.1155362686570796e-01</value>
          <splits>
            <_><var>1</var>
              <quality>6.8814814090728760e-01</quality>
              <le>1.1217484474182129e+00</le></_></splits></_>
        <_>
          <depth>1</depth>
          <value>9.7190111057358537e-03</value></_>
        <_>
          <depth>1</depth>
          <value>-5.7564577324601141e+00</value></_></nodes></_>
    <_>
      <nodes>
        <_>
          <depth>0</depth>
          <value>9.7969676455476429e-01</value>
          <splits>
            <_><var>1</var>
              <quality>7.0910662412643433e-01</quality>
              <le>1.1220732927322388e+00</le></_></splits></_>
        <_>
          <depth>1</depth>
          <value>2.9702533453346475e-02</value></_>
        <_>
          <depth>1</depth>
          <value>5.7564577324623896e+00</value></_></nodes></_>
    <_>
      <nodes>
        <_>
          <depth>0</depth>
          <value>-9.4048692673786505e-01</value>
          <splits>
            <_><var>1</var>
              <quality>6.9910693168640137e-01</quality>
              <le>1.1217484474182129e+00</le></_></splits></_>
        <_>
          <depth>1</depth>
          <value>4.1687608903047987e-10</value></_>
        <_>
          <depth>1</depth>
          <value>-5.7564577324601141e+00</value></_></nodes></_>
    <_>
      <nodes>
        <_>
          <depth>0</depth>
          <value>9.6265204959708828e-01</value>
          <splits>
            <_><var>1</var>
              <quality>7.0838326215744019e-01</quality>
              <le>1.1220732927322388e+00</le></_></splits></_>
        <_>
          <depth>1</depth>
          <value>2.2204460492503126e-16</value></_>
        <_>
          <depth>1</depth>
          <value>5.7564577324623896e+00</value></_></nodes></_>
    <_>
      <nodes>
        <_>
          <depth>0</depth>
          <value>-9.4048692697807668e-01</value>
          <splits>
            <_><var>1</var>
              <quality>6.9914561510086060e-01</quality>
              <le>1.1217484474182129e+00</le></_></splits></_>
        <_>
          <depth>1</depth>
          <value>0.</value></_>
        <_>
          <depth>1</depth>
          <value>-5.7564577324601141e+00</value></_></nodes></_>
    <_>
      <nodes>
        <_>
          <depth>0</depth>
          <value>9.6265204959708828e-01</value>
          <splits>
            <_><var>1</var>
              <quality>7.0838338136672974e-01</quality>
              <le>1.1220732927322388e+00</le></_></splits></_>
        <_>
          <depth>1</depth>
          <value>-5.5511151231257827e-17</value></_>
        <_>
          <depth>1</depth>
          <value>5.7564577324623896e+00</value></_></nodes></_>
    <_>
      <nodes>
        <_>
          <depth>0</depth>
          <value>-9.4048692697807856e-01</value>
          <splits>
            <_><var>1</var>
              <quality>6.9914573431015015e-01</quality>
              <le>1.1217484474182129e+00</le></_></splits></_>
        <_>
          <depth>1</depth>
          <value>2.2204460492503126e-16</value></_>
        <_>
          <depth>1</depth>
          <value>-5.7564577324601141e+00</value></_></nodes></_>
    <_>
      <nodes>
        <_>
          <depth>0</depth>
          <value>9.6265204959708739e-01</value>
          <splits>
            <_><var>1</var>
              <quality>7.0838338136672974e-01</quality>
              <le>1.1220732927322388e+00</le></_></splits></_>
        <_>
          <depth>1</depth>
          <value>-3.8857805861880494e-16</value></_>
        <_>
          <depth>1</depth>
          <value>5.7564577324623896e+00</value></_></nodes></_>
    <_>
      <nodes>
        <_>
          <depth>0</depth>
          <value>-9.4048692697807612e-01</value>
          <splits>
            <_><var>1</var>
              <quality>6.9914573431015015e-01</quality>
              <le>1.1217484474182129e+00</le></_></splits></_>
        <_>
          <depth>1</depth>
          <value>0.</value></_>
        <_>
          <depth>1</depth>
          <value>-5.7564577324601141e+00</value></_></nodes></_>
    <_>
      <nodes>
        <_>
          <depth>0</depth>
          <value>9.6265204959708828e-01</value>
          <splits>
            <_><var>1</var>
              <quality>7.0838338136672974e-01</quality>
              <le>1.1220732927322388e+00</le></_></splits></_>
        <_>
          <depth>1</depth>
          <value>4.4408920985006242e-16</value></_>
        <_>
          <depth>1</depth>
          <value>5.7564577324623896e+00</value></_></nodes></_>
    <_>
      <nodes>
        <_>
          <depth>0</depth>
          <value>-9.4048692697807756e-01</value>
          <splits>
            <_><var>1</var>
              <quality>6.9914573431015015e-01</quality>
              <le>1.1217484474182129e+00</le></_></splits></_>
        <_>
          <depth>1</depth>
          <value>-5.5511151231257827e-17</value></_>
        <_>
          <depth>1</depth>
          <value>-5.7564577324601141e+00</value></_></nodes></_>
    <_>
      <nodes>
        <_>
          <depth>0</depth>
          <value>9.6265204959708783e-01</value>
          <splits>
            <_><var>1</var>
              <quality>7.0838338136672974e-01</quality>
              <le>1.1220732927322388e+00</le></_></splits></_>
        <_>
          <depth>1</depth>
          <value>-4.4408920985006281e-16</value></_>
        <_>
          <depth>1</depth>
          <value>5.7564577324623896e+00</value></_></nodes></_>
    <_>
      <nodes>
        <_>
          <depth>0</depth>
          <value>-9.4048692697807779e-01</value>
          <splits>
            <_><var>1</var>
              <quality>6.9914573431015015e-01</quality>
              <le>1.1217484474182129e+00</le></_></splits></_>
        <_>
          <depth>1</depth>
          <value>2.2204460492503126e-16</value></_>
        <_>
          <depth>1</depth>
          <value>-5.7564577324601141e+00</value></_></nodes></_>
    <_>
      <nodes>
        <_>
          <depth>0</depth>
          <value>9.6265204959708783e-01</value>
          <splits>
            <_><var>1</var>
              <quality>7.0838338136672974e-01</quality>
              <le>1.1220732927322388e+00</le></_></splits></_>
        <_>
          <depth>1</depth>
          <value>-2.2204460492503136e-16</value></_>
        <_>
          <depth>1</depth>
          <value>5.7564577324623896e+00</value></_></nodes></_>
    <_>
      <nodes>
        <_>
          <depth>0</depth>
          <value>-9.4048692697807779e-01</value>
          <splits>
            <_><var>1</var>
              <quality>6.9914573431015015e-01</quality>
              <le>1.1217484474182129e+00</le></_></splits></_>
        <_>
          <depth>1</depth>
          <value>2.2204460492503126e-16</value></_>
        <_>
          <depth>1</depth>
          <value>-5.7564577324601141e+00</value></_></nodes></_>
    <_>
      <nodes>
        <_>
          <depth>0</depth>
          <value>9.6265204959708783e-01</value>
          <splits>
            <_><var>1</var>
              <quality>7.0838338136672974e-01</quality>
              <le>1.1220732927322388e+00</le></_></splits></_>
        <_>
          <depth>1</depth>
          <value>-2.2204460492503136e-16</value></_>
        <_>
          <depth>1</depth>
          <value>5.7564577324623896e+00</value></_></nodes></_>
    <_>
      <nodes>
        <_>
          <depth>0</depth>
          <value>-9.4048692697807779e-01</value>
          <splits>
            <_><var>1</var>
              <quality>6.9914573431015015e-01</quality>
              <le>1.1217484474182129e+00</le></_></splits></_>
        <_>
          <depth>1</depth>
          <value>2.2204460492503126e-16</value></_>
        <_>
          <depth>1</depth>
          <value>-5.7564577324601141e+00</value></_></nodes></_>
    <_>
      <nodes>
        <_>
          <depth>0</depth>
          <value>9.6265204959708783e-01</value>
          <splits>
            <_><var>1</var>
              <quality>7.0838338136672974e-01</quality>
              <le>1.1220732927322388e+00</le></_></splits></_>
        <_>
          <depth>1</depth>
          <value>-2.2204460492503136e-16</value></_>
        <_>
          <depth>1</depth>
          <value>5.7564577324623896e+00</value></_></nodes></_>
    <_>
      <nodes>
        <_>
          <depth>0</depth>
          <value>-9.4048692697807779e-01</value>
          <splits>
            <_><var>1</var>
              <quality>6.9914573431015015e-01</quality>
              <le>1.1217484474182129e+00</le></_></splits></_>
        <_>
          <depth>1</depth>
          <value>2.2204460492503126e-16</value></_>
        <_>
          <depth>1</depth>
          <value>-5.7564577324601141e+00</value></_></nodes></_>
    <_>
      <nodes>
        <_>
          <depth>0</depth>
          <value>9.6265204959708783e-01</value>
          <splits>
            <_><var>1</var>
              <quality>7.0838338136672974e-01</quality>
              <le>1.1220732927322388e+00</le></_></splits></_>
        <_>
          <depth>1</depth>
          <value>-2.2204460492503136e-16</value></_>
        <_>
          <depth>1</depth>
          <value>5.7564577324623896e+00</value></_></nodes></_>
    <_>
      <nodes>
        <_>
          <depth>0</depth>
          <value>-9.4048692697807779e-01</value>
          <splits>
            <_><var>1</var>
              <quality>6.9914573431015015e-01</quality>
              <le>1.1217484474182129e+00</le></_></splits></_>
        <_>
          <depth>1</depth>
          <value>2.2204460492503126e-16</value></_>
        <_>
          <depth>1</depth>
          <value>-5.7564577324601141e+00</value></_></nodes></_>
    <_>
      <nodes>
        <_>
          <depth>0</depth>
          <value>9.6265204959708783e-01</value>
          <splits>
            <_><var>1</var>
              <quality>7.0838338136672974e-01</quality>
              <le>1.1220732927322388e+00</le></_></splits></_>
        <_>
          <depth>1</depth>
          <value>-2.2204460492503136e-16</value></_>
        <_>
          <depth>1</depth>
          <value>5.7564577324623896e+00</value></_></nodes></_>
    <_>
      <nodes>
        <_>
          <depth>0</depth>
          <value>-9.4048692697807779e-01</value>
          <splits>
            <_><var>1</var>
              <quality>6.9914573431015015e-01</quality>
              <le>1.1217484474182129e+00</le></_></splits></_>
        <_>
          <depth>1</depth>
          <value>2.2204460492503126e-16</value></_>
        <_>
          <depth>1</depth>
          <value>-5.7564577324601141e+00</value></_></nodes></_>
    <_>
      <nodes>
        <_>
          <depth>0</depth>
          <value>9.6265204959708783e-01</value>
          <splits>
            <_><var>1</var>
              <quality>7.0838338136672974e-01</quality>
              <le>1.1220732927322388e+00</le></_></splits></_>
        <_>
          <depth>1</depth>
          <value>-2.2204460492503136e-16</value></_>
        <_>
          <depth>1</depth>
          <value>5.7564577324623896e+00</value></_></nodes></_>
    <_>
      <nodes>
        <_>
          <depth>0</depth>
          <value>-9.4048692697807779e-01</value>
          <splits>
            <_><var>1</var>
              <quality>6.9914573431015015e-01</quality>
              <le>1.1217484474182129e+00</le></_></splits></_>
        <_>
          <depth>1</depth>
          <value>2.2204460492503126e-16</value></_>
        <_>
          <depth>1</depth>
          <value>-5.7564577324601141e+00</value></_></nodes></_>
    <_>
      <nodes>
        <_>
          <depth>0</depth>
          <value>9.6265204959708783e-01</value>
          <splits>
            <_><var>1</var>
              <quality>7.0838338136672974e-01</quality>
              <le>1.1220732927322388e+00</le></_></splits></_>
        <_>
          <depth>1</depth>
          <value>-2.2204460492503136e-16</value></_>
        <_>
          <depth>1</depth>
          <value>5.7564577324623896e+00</value></_></nodes></_>
    <_>
      <nodes>
        <_>
          <depth>0</depth>
          <value>-9.4048692697807779e-01</value>
          <splits>
            <_><var>1</var>
              <quality>6.9914573431015015e-01</quality>
              <le>1.1217484474182129e+00</le></_></splits></_>
        <_>
          <depth>1</depth>
          <value>2.2204460492503126e-16</value></_>
        <_>
          <depth>1</depth>
          <value>-5.7564577324601141e+00</value></_></nodes></_>
    <_>
      <nodes>
        <_>
          <depth>0</depth>
          <value>9.6265204959708783e-01</value>
          <splits>
            <_><var>1</var>
              <quality>7.0838338136672974e-01</quality>
              <le>1.1220732927322388e+00</le></_></splits></_>
        <_>
          <depth>1</depth>
          <value>-2.2204460492503136e-16</value></_>
        <_>
          <depth>1</depth>
          <value>5.7564577324623896e+00</value></_></nodes></_>
    <_>
      <nodes>
        <_>
          <depth>0</depth>
          <value>-9.4048692697807779e-01</value>
          <splits>
            <_><var>1</var>
              <quality>6.9914573431015015e-01</quality>
              <le>1.1217484474182129e+00</le></_></splits></_>
        <_>
          <depth>1</depth>
          <value>2.2204460492503126e-16</value></_>
        <_>
          <depth>1</depth>
          <value>-5.7564577324601141e+00</value></_></nodes></_>
    <_>
      <nodes>
        <_>
          <depth>0</depth>
          <value>9.6265204959708783e-01</value>
          <splits>
            <_><var>1</var>
              <quality>7.0838338136672974e-01</quality>
              <le>1.1220732927322388e+00</le></_></splits></_>
        <_>
          <depth>1</depth>
          <value>-2.2204460492503136e-16</value></_>
        <_>
          <depth>1</depth>
          <value>5.7564577324623896e+00</value></_></nodes></_>
    <_>
      <nodes>
        <_>
          <depth>0</depth>
          <value>-9.4048692697807779e-01</value>
          <splits>
            <_><var>1</var>
              <quality>6.9914573431015015e-01</quality>
              <le>1.1217484474182129e+00</le></_></splits></_>
        <_>
          <depth>1</depth>
          <value>2.2204460492503126e-16</value></_>
        <_>
          <depth>1</depth>
          <value>-5.7564577324601141e+00</value></_></nodes></_>
    <_>
      <nodes>
        <_>
          <depth>0</depth>
          <value>9.6265204959708783e-01</value>
          <splits>
            <_><var>1</var>
              <quality>7.0838338136672974e-01</quality>
              <le>1.1220732927322388e+00</le></_></splits></_>
        <_>
          <depth>1</depth>
          <value>-2.2204460492503136e-16</value></_>
        <_>
          <depth>1</depth>
          <value>5.7564577324623896e+00</value></_></nodes></_>
    <_>
      <nodes>
        <_>
          <depth>0</depth>
          <value>-9.4048692697807779e-01</value>
          <splits>
            <_><var>1</var>
              <quality>6.9914573431015015e-01</quality>
              <le>1.1217484474182129e+00</le></_></splits></_>
        <_>
          <depth>1</depth>
          <value>2.2204460492503126e-16</value></_>
        <_>
          <depth>1</depth>
          <value>-5.7564577324601141e+00</value></_></nodes></_>
    <_>
      <nodes>
        <_>
          <depth>0</depth>
          <value>9.6265204959708783e-01</value>
          <splits>
            <_><var>1</var>
              <quality>7.0838338136672974e-01</quality>
              <le>1.1220732927322388e+00</le></_></splits></_>
        <_>
          <depth>1</depth>
          <value>-2.2204460492503136e-16</value></_>
        <_>
          <depth>1</depth>
          <value>5.7564577324623896e+00</value></_></nodes></_>
    <_>
      <nodes>
        <_>
          <depth>0</depth>
          <value>-9.4048692697807779e-01</value>
          <splits>
            <_><var>1</var>
              <quality>6.9914573431015015e-01</quality>
              <le>1.1217484474182129e+00</le></_></splits></_>
        <_>
          <depth>1</depth>
          <value>2.2204460492503126e-16</value></_>
        <_>
          <depth>1</depth>
          <value>-5.7564577324601141e+00</value></_></nodes></_>
    <_>
      <nodes>
        <_>
          <depth>0</depth>
          <value>9.6265204959708783e-01</value>
          <splits>
            <_><var>1</var>
              <quality>7.0838338136672974e-01</quality>
              <le>1.1220732927322388e+00</le></_></splits></_>
        <_>
          <depth>1</depth>
          <value>-2.2204460492503136e-16</value></_>
        <_>
          <depth>1</depth>
          <value>5.7564577324623896e+00</value></_></nodes></_>
    <_>
      <nodes>
        <_>
          <depth>0</depth>
          <value>-9.4048692697807779e-01</value>
          <splits>
            <_><var>1</var>
              <quality>6.9914573431015015e-01</quality>
              <le>1.1217484474182129e+00</le></_></splits></_>
        <_>
          <depth>1</depth>
          <value>2.2204460492503126e-16</value></_>
        <_>
          <depth>1</depth>
          <value>-5.7564577324601141e+00</value></_></nodes></_>
    <_>
      <nodes>
        <_>
          <depth>0</depth>
          <value>9.6265204959708783e-01</value>
          <splits>
            <_><var>1</var>
              <quality>7.0838338136672974e-01</quality>
              <le>1.1220732927322388e+00</le></_></splits></_>
        <_>
          <depth>1</depth>
          <value>-2.2204460492503136e-16</value></_>
        <_>
          <depth>1</depth>
          <value>5.7564577324623896e+00</value></_></nodes></_>
    <_>
      <nodes>
        <_>
          <depth>0</depth>
          <value>-9.4048692697807779e-01</value>
          <splits>
            <_><var>1</var>
              <quality>6.9914573431015015e-01</quality>
              <le>1.1217484474182129e+00</le></_></splits></_>
        <_>
          <depth>1</depth>
          <value>2.2204460492503126e-16</value></_>
        <_>
          <depth>1</depth>
          <value>-5.7564577324601141e+00</value></_></nodes></_>
    <_>
      <nodes>
        <_>
          <depth>0</depth>
          <value>9.6265204959708783e-01</value>
          <splits>
            <_><var>1</var>
              <quality>7.0838338136672974e-01</quality>
              <le>1.1220732927322388e+00</le></_></splits></_>
        <_>
          <depth>1</depth>
          <value>-2.2204460492503136e-16</value></_>
        <_>
          <depth>1</depth>
          <value>5.7564577324623896e+00</value></_></nodes></_>
    <_>
      <nodes>
        <_>
          <depth>0</depth>
          <value>-9.4048692697807779e-01</value>
          <splits>
            <_><var>1</var>
              <quality>6.9914573431015015e-01</quality>
              <le>1.1217484474182129e+00</le></_></splits></_>
        <_>
          <depth>1</depth>
          <value>2.2204460492503126e-16</value></_>
        <_>
          <depth>1</depth>
          <value>-5.7564577324601141e+00</value></_></nodes></_>
    <_>
      <nodes>
        <_>
          <depth>0</depth>
          <value>9.6265204959708783e-01</value>
          <splits>
            <_><var>1</var>
              <quality>7.0838338136672974e-01</quality>
              <le>1.1220732927322388e+00</le></_></splits></_>
        <_>
          <depth>1</depth>
          <value>-2.2204460492503136e-16</value></_>
        <_>
          <depth>1</depth>
          <value>5.7564577324623896e+00</value></_></nodes></_>
    <_>
      <nodes>
        <_>
          <depth>0</depth>
          <value>-9.4048692697807779e-01</value>
          <splits>
            <_><var>1</var>
              <quality>6.9914573431015015e-01</quality>
              <le>1.1217484474182129e+00</le></_></splits></_>
        <_>
          <depth>1</depth>
          <value>2.2204460492503126e-16</value></_>
        <_>
          <depth>1</depth>
          <value>-5.7564577324601141e+00</value></_></nodes></_>
    <_>
      <nodes>
        <_>
          <depth>0</depth>
          <value>9.6265204959708783e-01</value>
          <splits>
            <_><var>1</var>
              <quality>7.0838338136672974e-01</quality>
              <le>1.1220732927322388e+00</le></_></splits></_>
        <_>
          <depth>1</depth>
          <value>-2.2204460492503136e-16</value></_>
        <_>
          <depth>1</depth>
          <value>5.7564577324623896e+00</value></_></nodes></_>
    <_>
      <nodes>
        <_>
          <depth>0</depth>
          <value>-9.4048692697807779e-01</value>
          <splits>
            <_><var>1</var>
              <quality>6.9914573431015015e-01</quality>
              <le>1.1217484474182129e+00</le></_></splits></_>
        <_>
          <depth>1</depth>
          <value>2.2204460492503126e-16</value></_>
        <_>
          <depth>1</depth>
          <value>-5.7564577324601141e+00</value></_></nodes></_>
    <_>
      <nodes>
        <_>
          <depth>0</depth>
          <value>9.6265204959708783e-01</value>
          <splits>
            <_><var>1</var>
              <quality>7.0838338136672974e-01</quality>
              <le>1.1220732927322388e+00</le></_></splits></_>
        <_>
          <depth>1</depth>
          <value>-2.2204460492503136e-16</value></_>
        <_>
          <depth>1</depth>
          <value>5.7564577324623896e+00</value></_></nodes></_>
    <_>
      <nodes>
        <_>
          <depth>0</depth>
          <value>-9.4048692697807779e-01</value>
          <splits>
            <_><var>1</var>
              <quality>6.9914573431015015e-01</quality>
              <le>1.1217484474182129e+00</le></_></splits></_>
        <_>
          <depth>1</depth>
          <value>2.2204460492503126e-16</value></_>
        <_>
          <depth>1</depth>
          <value>-5.7564577324601141e+00</value></_></nodes></_>
    <_>
      <nodes>
        <_>
          <depth>0</depth>
          <value>9.6265204959708783e-01</value>
          <splits>
            <_><var>1</var>
              <quality>7.0838338136672974e-01</quality>
              <le>1.1220732927322388e+00</le></_></splits></_>
        <_>
          <depth>1</depth>
          <value>-2.2204460492503136e-16</value></_>
        <_>
          <depth>1</depth>
          <value>5.7564577324623896e+00</value></_></nodes></_>
    <_>
      <nodes>
        <_>
          <depth>0</depth>
          <value>-9.4048692697807779e-01</value>
          <splits>
            <_><var>1</var>
              <quality>6.9914573431015015e-01</quality>
              <le>1.1217484474182129e+00</le></_></splits></_>
        <_>
          <depth>1</depth>
          <value>2.2204460492503126e-16</value></_>
        <_>
          <depth>1</depth>
          <value>-5.7564577324601141e+00</value></_></nodes></_>
    <_>
      <nodes>
        <_>
          <depth>0</depth>
          <value>9.6265204959708783e-01</value>
          <splits>
            <_><var>1</var>
              <quality>7.0838338136672974e-01</quality>
              <le>1.1220732927322388e+00</le></_></splits></_>
        <_>
          <depth>1</depth>
          <value>-2.2204460492503136e-16</value></_>
        <_>
          <depth>1</depth>
          <value>5.7564577324623896e+00</value></_></nodes></_>
    <_>
      <nodes>
        <_>
          <depth>0</depth>
          <value>-9.4048692697807779e-01</value>
          <splits>
            <_><var>1</var>
              <quality>6.9914573431015015e-01</quality>
              <le>1.1217484474182129e+00</le></_></splits></_>
        <_>
          <depth>1</depth>
          <value>2.2204460492503126e-16</value></_>
        <_>
          <depth>1</depth>
          <value>-5.7564577324601141e+00</value></_></nodes></_>
    <_>
      <nodes>
        <_>
          <depth>0</depth>
          <value>9.6265204959708783e-01</value>
          <splits>
            <_><var>1</var>
              <quality>7.0838338136672974e-01</quality>
              <le>1.1220732927322388e+00</le></_></splits></_>
        <_>
          <depth>1</depth>
          <value>-2.2204460492503136e-16</value></_>
        <_>
          <depth>1</depth>
          <value>5.7564577324623896e+00</value></_></nodes></_>
    <_>
      <nodes>
        <_>
          <depth>0</depth>
          <value>-9.4048692697807779e-01</value>
          <splits>
            <_><var>1</var>
              <quality>6.9914573431015015e-01</quality>
              <le>1.1217484474182129e+00</le></_></splits></_>
        <_>
          <depth>1</depth>
          <value>2.2204460492503126e-16</value></_>
        <_>
          <depth>1</depth>
          <value>-5.7564577324601141e+00</value></_></nodes></_>
    <_>
      <nodes>
        <_>
          <depth>0</depth>
          <value>9.6265204959708783e-01</value>
          <splits>
            <_><var>1</var>
              <quality>7.0838338136672974e-01</quality>
              <le>1.1220732927322388e+00</le></_></splits></_>
        <_>
          <depth>1</depth>
          <value>-2.2204460492503136e-16</value></_>
        <_>
          <depth>1</depth>
          <value>5.7564577324623896e+00</value></_></nodes></_>
    <_>
      <nodes>
        <_>
          <depth>0</depth>
          <value>-9.4048692697807779e-01</value>
          <splits>
            <_><var>1</var>
              <quality>6.9914573431015015e-01</quality>
              <le>1.1217484474182129e+00</le></_></splits></_>
        <_>
          <depth>1</depth>
          <value>2.2204460492503126e-16</value></_>
        <_>
          <depth>1</depth>
          <value>-5.7564577324601141e+00</value></_></nodes></_>
    <_>
      <nodes>
        <_>
          <depth>0</depth>
          <value>9.6265204959708783e-01</value>
          <splits>
            <_><var>1</var>
              <quality>7.0838338136672974e-01</quality>
              <le>1.1220732927322388e+00</le></_></splits></_>
        <_>
          <depth>1</depth>
          <value>-2.2204460492503136e-16</value></_>
        <_>
          <depth>1</depth>
          <value>5.7564577324623896e+00</value></_></nodes></_>
    <_>
      <nodes>
        <_>
          <depth>0</depth>
          <value>-9.4048692697807779e-01</value>
          <splits>
            <_><var>1</var>
              <quality>6.9914573431015015e-01</quality>
              <le>1.1217484474182129e+00</le></_></splits></_>
        <_>
          <depth>1</depth>
          <value>2.2204460492503126e-16</value></_>
        <_>
          <depth>1</depth>
          <value>-5.7564577324601141e+00</value></_></nodes></_>
    <_>
      <nodes>
        <_>
          <depth>0</depth>
          <value>9.6265204959708783e-01</value>
          <splits>
            <_><var>1</var>
              <quality>7.0838338136672974e-01</quality>
              <le>1.1220732927322388e+00</le></_></splits></_>
        <_>
          <depth>1</depth>
          <value>-2.2204460492503136e-16</value></_>
        <_>
          <depth>1</depth>
          <value>5.7564577324623896e+00</value></_></nodes></_>
    <_>
      <nodes>
        <_>
          <depth>0</depth>
          <value>-9.4048692697807779e-01</value>
          <splits>
            <_><var>1</var>
              <quality>6.9914573431015015e-01</quality>
              <le>1.1217484474182129e+00</le></_></splits></_>
        <_>
          <depth>1</depth>
          <value>2.2204460492503126e-16</value></_>
        <_>
          <depth>1</depth>
          <value>-5.7564577324601141e+00</value></_></nodes></_>
    <_>
      <nodes>
        <_>
          <depth>0</depth>
          <value>9.6265204959708783e-01</value>
          <splits>
            <_><var>1</var>
              <quality>7.0838338136672974e-01</quality>
              <le>1.1220732927322388e+00</le></_></splits></_>
        <_>
          <depth>1</depth>
          <value>-2.2204460492503136e-16</value></_>
        <_>
          <depth>1</depth>
          <value>5.7564577324623896e+00</value></_></nodes></_>
    <_>
      <nodes>
        <_>
          <depth>0</depth>
          <value>-9.4048692697807779e-01</value>
          <splits>
            <_><var>1</var>
              <quality>6.9914573431015015e-01</quality>
              <le>1.1217484474182129e+00</le></_></splits></_>
        <_>
          <depth>1</depth>
          <value>2.2204460492503126e-16</value></_>
        <_>
          <depth>1</depth>
          <value>-5.7564577324601141e+00</value></_></nodes></_>
    <_>
      <nodes>
        <_>
          <depth>0</depth>
          <value>9.6265204959708783e-01</value>
          <splits>
            <_><var>1</var>
              <quality>7.0838338136672974e-01</quality>
              <le>1.1220732927322388e+00</le></_></splits></_>
        <_>
          <depth>1</depth>
          <value>-2.2204460492503136e-16</value></_>
        <_>
          <depth>1</depth>
          <value>5.7564577324623896e+00</value></_></nodes></_>
    <_>
      <nodes>
        <_>
          <depth>0</depth>
          <value>-9.4048692697807779e-01</value>
          <splits>
            <_><var>1</var>
              <quality>6.9914573431015015e-01</quality>
              <le>1.1217484474182129e+00</le></_></splits></_>
        <_>
          <depth>1</depth>
          <value>2.2204460492503126e-16</value></_>
        <_>
          <depth>1</depth>
          <value>-5.7564577324601141e+00</value></_></nodes></_>
    <_>
      <nodes>
        <_>
          <depth>0</depth>
          <value>9.6265204959708783e-01</value>
          <splits>
            <_><var>1</var>
              <quality>7.0838338136672974e-01</quality>
              <le>1.1220732927322388e+00</le></_></splits></_>
        <_>
          <depth>1</depth>
          <value>-2.2204460492503136e-16</value></_>
        <_>
          <depth>1</depth>
          <value>5.7564577324623896e+00</value></_></nodes></_>
    <_>
      <nodes>
        <_>
          <depth>0</depth>
          <value>-9.4048692697807779e-01</value>
          <splits>
            <_><var>1</var>
              <quality>6.9914573431015015e-01</quality>
              <le>1.1217484474182129e+00</le></_></splits></_>
        <_>
          <depth>1</depth>
          <value>2.2204460492503126e-16</value></_>
        <_>
          <depth>1</depth>
          <value>-5.7564577324601141e+00</value></_></nodes></_>
    <_>
      <nodes>
        <_>
          <depth>0</depth>
          <value>9.6265204959708783e-01</value>
          <splits>
            <_><var>1</var>
              <quality>7.0838338136672974e-01</quality>
              <le>1.1220732927322388e+00</le></_></splits></_>
        <_>
          <depth>1</depth>
          <value>-2.2204460492503136e-16</value></_>
        <_>
          <depth>1</depth>
          <value>5.7564577324623896e+00</value></_></nodes></_>
    <_>
      <nodes>
        <_>
          <depth>0</depth>
          <value>-9.4048692697807779e-01</value>
          <splits>
            <_><var>1</var>
              <quality>6.9914573431015015e-01</quality>
              <le>1.1217484474182129e+00</le></_></splits></_>
        <_>
          <depth>1</depth>
          <value>2.2204460492503126e-16</value></_>
        <_>
          <depth>1</depth>
          <value>-5.7564577324601141e+00</value></_></nodes></_>
    <_>
      <nodes>
        <_>
          <depth>0</depth>
          <value>9.6265204959708783e-01</value>
          <splits>
            <_><var>1</var>
              <quality>7.0838338136672974e-01</quality>
              <le>1.1220732927322388e+00</le></_></splits></_>
        <_>
          <depth>1</depth>
          <value>-2.2204460492503136e-16</value></_>
        <_>
          <depth>1</depth>
          <value>5.7564577324623896e+00</value></_></nodes></_>
    <_>
      <nodes>
        <_>
          <depth>0</depth>
          <value>-9.4048692697807779e-01</value>
          <splits>
            <_><var>1</var>
              <quality>6.9914573431015015e-01</quality>
              <le>1.1217484474182129e+00</le></_></splits></_>
        <_>
          <depth>1</depth>
          <value>2.2204460492503126e-16</value></_>
        <_>
          <depth>1</depth>
          <value>-5.7564577324601141e+00</value></_></nodes></_>
    <_>
      <nodes>
        <_>
          <depth>0</depth>
          <value>9.6265204959708783e-01</value>
          <splits>
            <_><var>1</var>
              <quality>7.0838338136672974e-01</quality>
              <le>1.1220732927322388e+00</le></_></splits></_>
        <_>
          <depth>1</depth>
          <value>-2.2204460492503136e-16</value></_>
        <_>
          <depth>1</depth>
          <value>5.7564577324623896e+00</value></_></nodes></_>
    <_>
      <nodes>
        <_>
          <depth>0</depth>
          <value>-9.4048692697807779e-01</value>
          <splits>
            <_><var>1</var>
              <quality>6.9914573431015015e-01</quality>
              <le>1.1217484474182129e+00</le></_></splits></_>
        <_>
          <depth>1</depth>
          <value>2.2204460492503126e-16</value></_>
        <_>
          <depth>1</depth>
          <value>-5.7564577324601141e+00</value></_></nodes></_>
    <_>
      <nodes>
        <_>
          <depth>0</depth>
          <value>9.6265204959708783e-01</value>
          <splits>
            <_><var>1</var>
              <quality>7.0838338136672974e-01</quality>
              <le>1.1220732927322388e+00</le></_></splits></_>
        <_>
          <depth>1</depth>
          <value>-2.2204460492503136e-16</value></_>
        <_>
          <depth>1</depth>
          <value>5.7564577324623896e+00</value></_></nodes></_>
    <_>
      <nodes>
        <_>
          <depth>0</depth>
          <value>-9.4048692697807779e-01</value>
          <splits>
            <_><var>1</var>
              <quality>6.9914573431015015e-01</quality>
              <le>1.1217484474182129e+00</le></_></splits></_>
        <_>
          <depth>1</depth>
          <value>2.2204460492503126e-16</value></_>
        <_>
          <depth>1</depth>
          <value>-5.7564577324601141e+00</value></_></nodes></_>
    <_>
      <nodes>
        <_>
          <depth>0</depth>
          <value>9.6265204959708783e-01</value>
          <splits>
            <_><var>1</var>
              <quality>7.0838338136672974e-01</quality>
              <le>1.1220732927322388e+00</le></_></splits></_>
        <_>
          <depth>1</depth>
          <value>-2.2204460492503136e-16</value></_>
        <_>
          <depth>1</depth>
          <value>5.7564577324623896e+00</value></_></nodes></_>
    <_>
      <nodes>
        <_>
          <depth>0</depth>
          <value>-9.4048692697807779e-01</value>
          <splits>
            <_><var>1</var>
              <quality>6.9914573431015015e-01</quality>
              <le>1.1217484474182129e+00</le></_></splits></_>
        <_>
          <depth>1</depth>
          <value>2.2204460492503126e-16</value></_>
        <_>
          <depth>1</depth>
          <value>-5.7564577324601141e+00</value></_></nodes></_></trees></opencv_ml_boost>
</opencv_storage>
