<?xml version="1.0"?>
<opencv_storage>
<opencv_ml_svm>
  <format>3</format>
  <svmType>C_SVC</svmType>
  <kernel>
    <type>CHI2</type>
    <gamma>2.</gamma></kernel>
  <C>1.</C>
  <term_criteria><iterations>100</iterations></term_criteria>
  <var_count>2</var_count>
  <class_count>3</class_count>
  <class_labels type_id="opencv-matrix">
    <rows>3</rows>
    <cols>1</cols>
    <dt>i</dt>
    <data>
      0 1 2</data></class_labels>
  <sv_total>92</sv_total>
  <support_vectors>
    <_>
      1511. 1.12195122e+00</_>
    <_>
      1000. 2.16853929e+00</_>
    <_>
      1462. 1.10731721e+00</_>
    <_>
      965. 2.16145825e+00</_>
    <_>
      1474. 1.10344815e+00</_>
    <_>
      1012. 2.06912446e+00</_>
    <_>
      924. 2.23936176e+00</_>
    <_>
      1028. 1.97787595e+00</_>
    <_>
      1472. 1.09756100e+00</_>
    <_>
      1029. 2.</_>
    <_>
      1524. 1.09422505e+00</_>
    <_>
      959. 2.20833349e+00</_>
    <_>
      1470. 1.09756100e+00</_>
    <_>
      1473. 1.09756100e+00</_>
    <_>
      1478. 1.09756100e+00</_>
    <_>
      1468. 1.11312222e+00</_>
    <_>
      1476. 1.10344815e+00</_>
    <_>
      1491. 1.02325583e+00</_>
    <_>
      1519. 1.11182106e+00</_>
    <_>
      1472. 1.09417045e+00</_>
    <_>
      1482. 1.09756100e+00</_>
    <_>
      1506. 1.12454212e+00</_>
    <_>
      1452. 1.12500000e+00</_>
    <_>
      1459. 1.10470068e+00</_>
    <_>
      1463. 1.10344815e+00</_>
    <_>
      1474. 1.12280703e+00</_>
    <_>
      1494. 1.12195122e+00</_>
    <_>
      1467. 1.10260582e+00</_>
    <_>
      1465. 1.09756100e+00</_>
    <_>
      1476. 1.12195122e+00</_>
    <_>
      1479. 1.10885596e+00</_>
    <_>
      1489. 1.10616457e+00</_>
    <_>
      1507. 1.12195122e+00</_>
    <_>
      1479. 1.12195122e+00</_>
    <_>
      1066. 1.95833337e+00</_>
    <_>
      1012. 1.96511638e+00</_>
    <_>
      989. 2.</_>
    <_>
      925. 2.29999995e+00</_>
    <_>
      963. 2.20731688e+00</_>
    <_>
      1037. 1.96598637e+00</_>
    <_>
      1022. 2.06547618e+00</_>
    <_>
      663. 2.47368431e+00</_>
    <_>
      1768. 1.</_>
    <_>
      1772. 1.</_>
    <_>
      1822. 1.02127659e+00</_>
    <_>
      1827. 1.</_>
    <_>
      1040. 1.94285703e+00</_>
    <_>
      1468. 1.10292411e+00</_>
    <_>
      2029. 1.50681198e+00</_>
    <_>
      1456. 1.10344815e+00</_>
    <_>
      1466. 1.10874200e+00</_>
    <_>
      1459. 1.09832132e+00</_>
    <_>
      1457. 1.09756100e+00</_>
    <_>
      1464. 1.11931813e+00</_>
    <_>
      2067. 1.54024780e+00</_>
    <_>
      2052. 1.53651702e+00</_>
    <_>
      2295. 1.74268997e+00</_>
    <_>
      1948. 1.50453961e+00</_>
    <_>
      2001. 1.51403511e+00</_>
    <_>
      1465. 1.09756100e+00</_>
    <_>
      1462. 1.10526323e+00</_>
    <_>
      1467. 1.12068975e+00</_>
    <_>
      1471. 1.10526299e+00</_>
    <_>
      2056. 1.53378356e+00</_>
    <_>
      2359. 1.75414371e+00</_>
    <_>
      2282. 1.75833344e+00</_>
    <_>
      1464. 1.10360372e+00</_>
    <_>
      1463. 1.14999998e+00</_>
    <_>
      1470. 1.13068187e+00</_>
    <_>
      2270. 1.78846157e+00</_>
    <_>
      2278. 1.78911543e+00</_>
    <_>
      2287. 1.75438595e+00</_>
    <_>
      2279. 1.77027023e+00</_>
    <_>
      2071. 1.56521738e+00</_>
    <_>
      2013. 1.51428568e+00</_>
    <_>
      2020. 1.49703276e+00</_>
    <_>
      1995. 1.51150453e+00</_>
    <_>
      1512. 1.12345684e+00</_>
    <_>
      1493. 1.11320758e+00</_>
    <_>
      1486. 1.11811030e+00</_>
    <_>
      1487. 1.10643566e+00</_>
    <_>
      2311. 1.78855729e+00</_>
    <_>
      2015. 1.53823531e+00</_>
    <_>
      2068. 1.54545486e+00</_>
    <_>
      2023. 1.54807699e+00</_>
    <_>
      2017. 1.53370810e+00</_>
    <_>
      2118. 1.53191495e+00</_>
    <_>
      1499. 1.11418700e+00</_>
    <_>
      1475. 1.12068963e+00</_>
    <_>
      1488. 1.10557175e+00</_>
    <_>
      1491. 1.14999998e+00</_>
    <_>
      2220. 1.74556196e+00</_></support_vectors>
  <decision_functions>
    <_>
      <sv_count>20</sv_count>
      <rho>-3.9166673201834901e-01</rho>
      <alpha>
        1.5586264686676496e-01 5.2200662621941119e-01
        3.2225045755872422e-01 5.2320280570652411e-01
        4.7767024123155956e-02 1.6078481644096931e-01
        3.2756695576290706e-01 3.5675588141838591e-02
        2.1145125560952843e-01 9.3196984069227343e-02
        1.8885767303234918e-01 1.8325230136762416e-01
        3.6916377353857374e-02 5.1322495674121982e-01
        1.7752410999865353e-02 -1.6780531820753883e-01 -1.
        -1.7196356178642830e-01 -1. -1.</alpha>
      <index>
        31 22 37 34 35 36 38 40 6 7 9 1 3 10 17 44 45 43 42 41</index></_>
    <_>
      <sv_count>73</sv_count>
      <rho>8.7330067487404045e-02</rho>
      <alpha>
        4.0747464582759596e-01 1. 1. 1. 6.6808042216321462e-01
        1.2829636071245382e-01 1. 1. 1. 1. 1. 6.1578403759005484e-01 1.
        6.0250190748995225e-01 9.4578843977940741e-01 1. 1.
        1.1280068272410144e-01 2.9894806568513549e-01 1.
        5.7789335976320977e-01 5.5262689053799212e-02 1. 1.
        9.4119418929624077e-01 7.5591289050740473e-01
        5.0056406727062253e-01 5.7533610302637850e-01 1. 1. 1. 1. 1. 1.
        -3.1366383465444925e-01 -1. -1. -1. -1. -2.5790651928219455e-01
        -1.2607977211965377e-01 -8.8875176392080993e-02
        -7.8167829744141415e-01 -1. -1. -1. -1. -8.0064982890536252e-01
        -3.9384675215137041e-02 -7.8168526617553846e-01
        -5.8627410487245714e-02 -1. -1. -1. -1. -1. -1.
        -7.5150446636989318e-02 -1. -1. -1. -5.6758724734222055e-02
        -5.8714172772499004e-02 -5.3946309688421644e-02
        -2.5556320691081252e-01 -1.1780903586036093e-01 -1. -1.
        -7.8751583269602721e-01 -5.3182935091716210e-01 -1. -1. -1.</alpha>
      <index>
        26 27 28 29 30 32 33 22 23 24 25 37 34 36 39 0 4 5 6 8 9 1 2 19
        20 21 10 11 12 13 14 15 16 18 76 77 78 79 80 81 82 74 91 90 89
        88 87 86 58 57 56 59 53 52 51 50 49 48 47 46 66 73 72 71 70 69
        68 67 64 63 62 61 60</index></_>
    <_>
      <sv_count>30</sv_count>
      <rho>5.7067323529184533e-01</rho>
      <alpha>
        3.0957654756678926e-01 1. 3.1698283597643895e-01 1. 1.
        -1.4449073274590141e-01 -3.8373419107218210e-01
        -8.5138970189709312e-02 -2.5731304200763021e-02
        -3.7773542719272128e-02 -5.8570533982590933e-02
        -3.6937133550043272e-01 -7.9697471651537510e-03
        -3.7358052875062164e-01 -2.2802815780439242e-02
        -9.2186397600608760e-03 -4.3187208749415062e-03
        -2.5478086715851611e-03 -3.6640743652826668e-01
        -8.1194454451132575e-02 -4.3718252127124477e-02
        -3.8191155354289585e-01 -4.2889861137146695e-01
        -4.1232936709552415e-02 -4.6106638538159536e-02
        -7.0315752522575437e-02 -7.1470513840153446e-02
        -1.4931576620371256e-02 -3.7089378355715624e-01
        -1.8422900232071934e-01</alpha>
      <index>
        44 45 43 42 41 76 77 81 82 75 74 91 83 86 85 84 54 58 57 56 55
        49 46 73 71 70 69 65 64 63</index></_></decision_functions></opencv_ml_svm>
</opencv_storage>
